tree
version=v2
num_class=1
num_tree_per_iteration=1
label_index=0
max_feature_idx=27
objective=regression
feature_names=Column_0 Column_1 Column_2 Column_3 Column_4 Column_5 Column_6 Column_7 Column_8 Column_9 Column_10 Column_11 Column_12 Column_13 Column_14 Column_15 Column_16 Column_17 Column_18 Column_19 Column_20 Column_21 Column_22 Column_23 Column_24 Column_25 Column_26 Column_27
feature_infos=[-1:0] [-2.3999999999999999:5] [0:1] [0:1] [0:1] [-1.0219780219780219:2.1318681318681318] [-1:0] [-0.5:9.5] [-1.1603013769810342:9.7590283190439084] [-1.1028117885928752:9.8244016489263526] [-0.66666666666666663:544.11111111111109] [0:1] [-2:0.5] [-0.68888888888888888:29.844444444444445] [0:1] [-0.16326530612244897:1.7142857142857142] [0:1] [0:1] [0:1] [0:1] [0:1] [-0.2735229759299781:256.11159737417944] [0:8235] [-0.23390275952693823:76.616732369689004] [-0.1388025688833644:572.56764035632898] [0:5856] [0:449] [0:3491.25]
tree_sizes=2474 2489 2489 2501 2500 2487 2489 2485 2493 2509 2486 2513 2477 2533 2512 2502 2512 2506 2499 2471

Tree=0
num_leaves=31
num_cat=0
split_feature=13 5 13 8 5 5 8 8 13 5 8 13 5 13 5 8 8 8 5 5 5 5 8 8 5 5 8 5 8 5
split_gain=2.15839e+07 3.66421e+06 3.05049e+06 1.96879e+06 1.41869e+06 1.17532e+06 903165 839921 587566 584580 566494 420066 359435 334637 319321 308434 293272 243200 211354 201939 181535 159573 148775 133164 123739 122912 118756 95576.2 91233.3 90890
threshold=-0.25555555555555548 -0.74175824175824168 0.3444444444444445 -0.67322681215900226 -0.64285714285714268 -0.027472527472527469 -0.26338009872694196 -0.67322681215900226 -0.52222222222222203 -0.91758241758241754 0.055339049103663371 -0.52222222222222203 -0.91758241758241754 -0.49999999999999994 0.20329670329670332 -0.15231228890620932 -0.67322681215900226 0.055339049103663371 -0.91758241758241754 0.038461538461538471 0.20329670329670332 0.46703296703296709 -0.66647181085996354 -0.24155624837620152 -0.91758241758241754 0.1263736263736264 -0.66647181085996354 -0.027472527472527469 -0.2853338529488178 -0.64285714285714268
decision_type=2 2 2 2 2 2 2 2 2 2 2 2 2 2 2 2 2 2 2 2 2 2 2 2 2 2 2 2 2 2
left_child=1 7 4 13 12 9 16 -1 23 -4 26 24 -2 -3 -8 19 -6 -11 -13 -10 -18 -12 -14 -5 -9 -15 -7 -17 -20 -19
right_child=2 3 5 8 6 10 14 11 15 17 21 18 22 25 -16 27 20 29 28 -21 -22 -23 -24 -25 -26 -27 -28 -29 -30 -31
leaf_value=588.80430798505154 604.28074626371995 598.21456402492743 607.01974621686304 605.25244954332732 613.13375037271885 619.04597570348039 621.77687584501189 594.14566365095914 610.58198277936458 618.99337119894335 628.99159061741022 600.4241641452985 599.40546056524363 603.14335954945784 626.34574877558828 616.57497219359539 616.68681350842667 621.43198025262973 603.7869792491972 616.33351959798938 621.74566435566067 632.37641738595664 615.30628466324515 611.27254177244311 600.26937859841235 609.25724625451039 626.0492092424289 621.10996360830802 611.60211057319168 625.88442336700643
leaf_count=685 450 878 204 701 964 244 3240 654 1281 800 2139 481 56 649 2394 1062 1248 517 206 962 1307 3028 975 626 544 544 2039 690 387 2044
internal_value=0 -37.5631 17.9561 -25.6634 5.87494 29.6195 10.5211 -67.3143 -15.4836 14.6869 36.765 -58.0602 -22.8395 -51.8234 18.3717 -9.42781 -2.04793 17.8417 -43.6993 -17.1934 3.55956 42.5614 -12.5472 -33.7147 -70.9347 -40.9184 23.6465 0.514111 -31.0651 22.596
internal_count=31999 10350 21649 7393 10634 11015 9153 2957 5322 3565 7450 2272 1481 2071 5634 3995 3519 3361 1074 2243 2555 5167 1031 1327 1198 1193 2283 1752 593 2561
shrinkage=1


Tree=1
num_leaves=31
num_cat=0
split_feature=13 13 5 5 8 5 8 8 8 5 5 8 8 5 13 5 8 8 13 8 5 8 13 13 8 8 5 5 5 5
split_gain=1.07812e+07 2.0311e+06 1.54805e+06 809594 693503 602041 553553 482661 420478 389837 270477 210497 203473 187591 176861 155331 152543 138401 136966 124008 99488.6 96894 89048.4 83049.2 78642.5 78480.1 76093.2 75621.7 72119.5 65239
threshold=-0.32222222222222213 0.10000000000000002 -0.62087912087912078 -0.049450549450549448 -0.52559106261366573 -0.64285714285714268 -0.40835281891400355 0.47583787996882326 -0.40835281891400355 -0.91758241758241754 -0.91758241758241754 0.43095609249155642 -0.92640945700181854 -0.95054945054945039 -0.58888888888888868 -0.027472527472527469 -0.40497531826448419 -0.83729540140296177 -0.56666666666666654 0.047349961028838712 0.29120879120879123 -0.66647181085996354 1.6111111111111114 -0.56666666666666654 -0.19147830605352031 0.18842556508183952 0.21428571428571433 -0.9725274725274724 0.45604395604395614 -0.57692307692307676
decision_type=2 2 2 2 2 2 2 2 2 2 2 2 2 2 2 2 2 2 2 2 2 2 2 2 2 2 2 2 2 2
left_child=2 5 6 9 12 13 14 16 17 -3 27 21 -4 -2 -1 25 -5 -7 -14 23 -19 -11 -9 -6 -15 -10 -20 -8 -18 -23
right_child=1 3 4 7 19 8 10 22 15 11 -12 -13 18 24 -16 -17 28 20 26 -21 -22 29 -24 -25 -26 -27 -28 -29 -30 -31
leaf_value=-21.787465061612615 -13.485397284400014 -7.7732673649097368 -16.343481524314797 2.4615222443025124 -8.0883405455306594 -6.3806089136423623 -19.915310603314705 8.4602486627168823 -0.79129820149147878 -7.8816914103283242 -7.345976575490905 5.2161562866688023 -12.740932845609931 -7.8986631287610463 -15.156177618952647 3.9943944110780856 4.7388972133891851 -2.9697085157219529 -8.6909701067422116 0.039332959363888101 1.4925665323010784 -1.3230731471642359 11.298637576201934 -3.1261305834806317 -2.6611376725029774 2.8310824848635723 -4.3877835925931876 -13.083005643334102 7.2595755535937911 2.4642442347769697
leaf_count=718 239 317 342 1290 377 583 182 2456 1374 103 1025 2193 506 374 730 2717 1771 1060 980 987 781 543 1672 1558 832 885 594 733 2414 1663
internal_value=0 11.2438 -29.9635 18.5608 -19.3618 -0.686729 -46.6858 23.8683 2.95898 7.98416 -35.6427 10.3708 -31.8743 -19.3568 -61.4811 8.22015 17.7124 -7.84116 -28.1577 -8.99041 -3.58899 3.70694 32.033 -13.6431 -14.2846 2.09276 -23.5567 -48.14 20.6429 5.10669
internal_count=31999 23267 8732 14422 5344 8845 3388 9603 7400 4819 1940 4502 2422 1445 1448 4976 5475 2424 2080 2922 1841 2309 4128 1935 1206 2259 1574 915 4185 2206
shrinkage=0.3


Tree=2
num_leaves=31
num_cat=0
split_feature=13 13 5 5 24 5 24 8 5 8 8 5 1 8 5 8 5 5 8 8 8 8 23 8 23 5 13 1 8 5
split_gain=5.42276e+06 1.16452e+06 654423 562727 330591 321575 266798 260233 236509 224411 215303 110181 105720 110306 98176.3 90659 86395.6 81449.1 78080.3 69488.9 67936.3 66661.3 63317.1 61415.9 51947.7 51989.8 51887.4 47062 47054.1 44755.3
threshold=-0.36666666666666664 -0.055555555555555546 -0.64285714285714268 0.22527472527472531 -0.13735239279055311 -0.77472527472527464 -0.13652372073751809 -0.054494673941283357 -0.77472527472527464 -0.00759937646141847 -0.67322681215900226 0.21428571428571433 -0.7666666666666665 -0.00759937646141847 -0.91758241758241754 1.0392959210184467 -0.9725274725274724 -0.9725274725274724 -0.33995843076123661 -0.95226032735775512 -0.74993504806443212 0.99434918160561236 -0.23083661848445025 -0.84625876851130155 -0.23171265878230396 -0.23626373626373623 -0.56666666666666654 -0.83333333333333326 0.31124967524032238 0.20329670329670332
decision_type=2 2 2 2 2 2 2 2 2 2 2 2 2 2 2 2 2 2 2 2 2 2 2 2 2 2 2 2 2 2
left_child=2 8 6 5 11 16 26 22 17 20 19 23 -12 24 -8 -9 -3 -2 29 -10 -7 27 -5 -4 -14 -26 -1 -11 -16 -6
right_child=1 3 4 7 18 9 14 15 10 21 12 -13 13 -15 28 -17 -18 -19 -20 -21 -22 -23 -24 -25 25 -27 -28 -29 -30 -31
leaf_value=-15.377678949643636 -14.699677046523036 -13.058641684545229 -12.572689007092592 0.64710892504235951 -5.407924270121816 -5.0916076288522722 -10.674522937851195 5.6379353549320887 -11.955122984178137 -0.87338193409285581 -3.7073812653822014 -4.6633591661396139 -2.5469275903875093 2.6392250815461709 -7.1330905560943414 8.2494236754253496 -2.3601621463843472 -4.796186624224311 -1.0747208662351004 -3.5899029469301964 0.58223644061664193 5.1914080441341737 3.7962081162979713 -8.0140870376336792 -1.8872188384002693 1.2991176223861969 -11.238075159162495 3.1906898549683831 -1.6866315078998313 -1.6257411639748225
leaf_count=766 83 73 401 782 940 208 792 3889 99 278 519 638 719 1820 891 1728 979 751 1404 919 2186 1626 2167 790 647 1602 423 3307 170 402
internal_value=0 7.27541 -23.2915 11.7311 -15.7333 6.04516 -34.6587 17.4774 -3.44392 8.31197 -1.35679 -26.1491 1.19853 2.66799 -27.1569 21.4711 -10.3418 -19.2726 -8.79571 -14.6781 0.29757 11.9939 9.87049 -31.8298 -1.09062 1.27487 -46.3499 9.58513 -20.8681 -14.2499
internal_count=31999 24382 7617 17223 4575 8657 3042 8566 7159 7605 6325 1829 5307 4788 1853 5617 1052 834 2746 1018 2394 5211 2949 1191 2968 2249 1189 3585 1061 1342
shrinkage=0.3


Tree=3
num_leaves=31
num_cat=0
split_feature=13 13 13 5 5 8 13 21 1 8 5 8 5 8 5 1 5 1 5 5 8 1 8 8 8 8 8 5 5 5
split_gain=2.72652e+06 737552 270677 241643 233570 183955 179546 160923 117868 107444 124506 85747.5 79077.2 74994.7 71334.8 69349.1 58762.8 56535.6 56350.8 55039.1 45027.2 43221.6 39678.5 38394.4 38026.2 35957.4 34580.2 31679.9 31360.3 30781.4
threshold=-0.43333333333333329 0.12222222222222223 -0.61111111111111105 -0.44505494505494497 -0.58791208791208782 -0.19147830605352031 1.1222222222222225 -0.27297592997811809 1.5000000000000002 -0.43615224733697056 -0.91758241758241754 -0.82703299558326837 -0.84065934065934056 -0.15231228890620932 0.46703296703296709 -1.0000000180025095e-35 -0.071428571428571411 -0.96666666666666656 -0.96153846153846145 -0.027472527472527469 -0.88315146791374366 -1.0000000180025095e-35 -0.047739672642244609 0.039555728760717196 0.53526890101325053 0.095544297220057334 -0.74993504806443212 -0.9725274725274724 0.48901098901098911 -0.30219780219780218
decision_type=2 2 2 2 2 2 2 2 2 2 2 2 2 2 2 2 2 2 2 2 2 2 2 2 2 2 2 2 2 2
left_child=2 3 11 9 18 8 13 16 14 -2 27 -1 -9 26 20 -8 -4 -12 -3 -13 -5 -15 -20 29 -7 -19 -6 -11 -28 -14
right_child=1 4 7 5 6 24 15 12 -10 10 17 19 23 21 -16 -17 -18 25 22 -21 -22 -23 -24 -25 -26 -27 28 -29 -30 -31
leaf_value=-12.469985369061675 -5.9875622775349022 -7.9419174494241407 -8.647017653430801 -4.680652850056938 -2.0998009116932894 1.4591208382600631 3.304263531047575 -6.1547495023727423 -4.7207497388081361 -9.6057293724607344 -4.5748954657360281 -8.5007166191065533 -4.3553644425926148 2.0941636521400655 1.6759912113260189 5.6447209165106456 -4.4913787729646026 -1.3603386695980173 -3.8817546576638762 -3.2466734193580247 -0.66475323560703237 3.7488400226833534 0.41204445934169137 -0.072612852811755821 3.6804224265207428 1.2884969014000018 0.28612633739287091 -4.3578816506471778 2.6928024293914921 -1.7892246434177013
leaf_count=446 658 95 862 278 303 2948 1944 625 605 132 284 1139 812 2844 1231 2753 475 917 237 213 2614 2839 1060 518 907 928 1111 480 868 873
internal_value=0 4.41706 -19.2887 -1.34721 9.3315 1.47883 10.6832 -14.862 -2.70149 -8.48341 -5.72871 -29.543 -10.588 7.79149 -0.78886 15.5868 -23.9021 -2.1152 -2.96382 -25.5766 -3.50264 9.73591 -1.24186 -7.77147 6.60582 -0.0934154 2.94917 -18.2992 4.47236 -10.0862
internal_count=31999 26036 5963 11982 14054 8583 12662 4165 4728 3399 2741 1798 2828 7965 4123 4697 1337 2129 1392 1352 2892 5683 1297 2203 3855 1845 2282 612 1979 1685
shrinkage=0.3


Tree=4
num_leaves=31
num_cat=0
split_feature=13 13 5 23 1 5 23 7 1 9 7 13 1 5 5 5 7 1 5 24 6 5 5 11 5 5 23 7 21 1
split_gain=1.39142e+06 382824 231716 164785 129667 119917 97313.5 75856.9 74330.6 70291.4 68233.3 64228.2 56091.9 46426.5 46103.9 43174.1 40817.9 34197.9 34048 30847.4 29818 29714.9 27450.4 25901.2 23568.6 23463.7 23436.8 19855.3 19740.3 19392.6
threshold=-0.16666666666666666 -0.56666666666666654 0.15934065934065936 -0.23083661848445025 -0.89999999999999991 -0.91758241758241754 -0.23346473937801135 -0.49774549098196391 -0.89999999999999991 -0.64511167169137995 -0.057064128256513018 1.5666666666666669 2.1000000000000005 0.060439560439560447 -0.30219780219780218 -0.9725274725274724 0.30410821643286584 1.966666666666667 0.20329670329670332 -0.13320903252537805 -1.0000000180025095e-35 0.093406593406593422 -0.73076923076923073 1.0000000180025095e-35 -0.84065934065934056 0.70879120879120894 -0.23258869908015767 -0.20040080160320636 -0.094638949671772415 1.0000000180025095e-35
decision_type=2 2 2 2 2 2 2 2 2 2 2 2 2 2 2 2 2 2 2 2 2 2 2 2 2 2 2 2 2 2
left_child=1 7 5 12 15 -2 17 22 -7 -10 18 20 14 23 27 -5 26 -4 28 -16 -8 -12 -1 24 -9 -22 -11 29 -6 -3
right_child=2 3 6 4 10 8 11 13 9 16 21 -13 -14 -15 19 -17 -18 -19 -20 -21 25 -23 -24 -25 -26 -27 -28 -29 -30 -31
leaf_value=-8.6402673340249212 -3.7858677273741268 -7.5878533601594675 0.48458489391355003 -15.288982348008588 -3.1102342070830193 -2.6764433816265822 1.488619521718233 -5.9958316360144535 -3.0827711023108848 -1.4339041851857417 0.14789578037776122 4.4140409673608483 -8.0789033002975703 -0.17439907981952033 -2.7598931838162213 -4.1554947397912647 2.008734842991255 -6.2944723752812601 0.34009066612431493 0.17443061995211728 2.407744967614724 2.2758049351611911 -5.8349243403265429 -11.151661373887743 -3.3814292514907276 3.7883637740496821 0.83888404282991713 -3.3195745471121016 -1.2229192658624273 -4.0543051557596197
leaf_count=656 551 269 1181 33 748 528 1931 564 364 451 1862 2016 212 225 1289 626 3202 71 891 430 3242 865 602 56 690 1683 4317 656 1497 291
internal_value=0 -8.25685 5.26621 -5.27799 -2.41034 1.69462 8.58697 -18.5693 2.58461 3.31358 -0.915454 9.75164 -11.2211 -13.8514 -10.0864 -15.71 3.93423 0.333832 -4.09667 -6.75295 8.29261 2.74288 -24.326 -16.1306 -15.1909 9.59846 2.07968 -14.7987 -6.17248 -19.1722
internal_count=31999 12462 19537 9669 6522 9413 10124 2793 8862 8334 5863 8872 3147 1535 2935 659 7970 1252 3136 1719 6856 2727 1258 1310 1254 4925 4768 1216 2245 560
shrinkage=0.3


Tree=5
num_leaves=31
num_cat=0
split_feature=13 8 5 8 5 5 7 1 8 5 1 8 5 5 8 1 8 5 12 12 13 12 8 1 8 5 1 1 8 1
split_gain=668567 240497 142823 138229 105210 87135.6 72254.7 60336.9 59937.1 53374.6 52275.6 51856.8 39536.6 39009.2 37966.6 36619.7 36579.3 32509.8 29439.5 28134.4 27737.1 26791.6 26152.4 25689.2 25255.2 23400.2 21029.6 23633.4 19236.7 17966.2
threshold=-0.1222222222222222 -0.70375422187581183 -0.91758241758241754 0.65984671343206069 -0.26923076923076922 -0.19230769230769226 -0.34584168336673343 1.7666666666666668 -0.95226032735775512 0.46703296703296709 -0.7666666666666665 -0.92640945700181854 -0.89560439560439542 -0.9725274725274724 -0.95226032735775512 1.3666666666666669 -0.10918420368926986 0.47802197802197804 1.0000000180025095e-35 1.0000000180025095e-35 -0.65555555555555545 1.0000000180025095e-35 0.17335671603013783 -1.0000000180025095e-35 -0.55488438555468944 -0.76373626373626358 1.0000000180025095e-35 1.3 0.25623538581449751 -0.7666666666666665
decision_type=2 2 2 2 2 2 2 2 2 2 2 2 2 2 2 2 2 2 2 2 2 2 2 2 2 2 2 2 2 2
left_child=1 4 13 5 11 12 21 14 -6 25 28 -1 16 22 -7 17 -2 -12 -10 23 -13 26 -3 -16 -14 -5 -4 -28 -8 -26
right_child=3 2 6 9 8 7 10 -9 18 -11 15 20 24 -15 19 -17 -18 -19 -20 -21 -22 -23 -24 -25 29 -27 27 -29 -30 -31
leaf_value=-9.6729077135098454 -10.807495833399161 -10.318085156708229 -1.9644185626377311 -0.38476165394474576 -6.6108006185981854 -5.7197720175076805 -3.0467927648357724 -3.226016566316428 -0.36741090719242725 3.591155580577746 0.31896414958121166 -8.8514061647410287 -2.8295519764412123 -3.0403228050508964 0.84999749397981517 -2.5167258886880548 -2.3423835978559824 2.5455937923365188 -3.2008495544894044 -0.055593011297714323 -4.4193329122199829 -3.0593981333591551 -4.3518924309136144 1.9716510714212618 -1.6280660355005441 1.9684119435098368 0.63323427581542757 -3.2628727372082178 0.3345453353204163 0.34572414441877747
leaf_count=269 53 123 1191 429 251 70 596 281 782 2088 4301 147 318 1042 3131 358 345 684 571 1199 938 923 143 4449 506 3352 776 171 203 2309
internal_value=0 -5.35754 -3.1159 3.90085 -13.323 2.04129 -1.72622 3.67275 -7.84354 7.91241 0.251865 -19.8141 -2.17714 -12.8936 4.13085 1.38004 -11.5655 2.08161 -5.21064 4.31581 -16.7327 -5.69532 -23.7023 5.0278 -0.98449 5.67139 -3.75146 -0.234289 -7.29235 -0.0302242
internal_count=31999 13469 10511 18530 2958 12661 9203 9130 1604 5869 6142 1354 3531 1308 8849 5343 398 4985 1353 8779 1085 3061 266 7580 3133 3781 2138 947 799 2815
shrinkage=0.3


Tree=6
num_leaves=31
num_cat=0
split_feature=13 8 8 5 5 12 5 1 5 1 8 1 1 1 1 1 8 9 1 24 5 5 8 21 7 5 8 13 1 1
split_gain=375098 140306 75317.5 75160.8 69097.5 56552.6 48391.8 40018.8 38371.1 32091 32051.4 30016.8 28781.8 25685.4 24882.3 30639.5 24337.9 27632.3 24313.1 22081.8 22012.3 20119 19253.6 18403.8 17995.5 17868.4 16689.6 17560.4 16635.1 14474.7
threshold=-0.43333333333333329 0.13633411275656024 -0.54890880748246285 -0.28021978021978017 0.46703296703296709 1.0000000180025095e-35 -0.92857142857142849 -0.83333333333333326 -0.88461538461538447 -1.0999999999999999 -0.95226032735775512 2.2333333333333338 2.3666666666666671 -1.0999999999999999 1.2333333333333336 0.23333333333333336 -0.95226032735775512 -0.5122131298837137 1.9000000000000001 -0.13569504868448309 0.55494505494505508 -0.85164835164835151 1.3887373343725649 -0.26641137855579861 -0.20040080160320636 -0.95054945054945039 0.81404260846973264 -0.63333333333333319 -0.89999999999999991 -1.0000000180025095e-35
decision_type=2 2 2 2 2 2 2 2 2 2 2 2 2 2 2 2 2 2 2 2 2 2 2 2 2 2 2 2 2 2
left_child=2 3 8 9 6 10 -3 25 -1 -2 -5 20 16 -8 15 24 -10 19 21 -18 26 -11 -15 -7 -12 -4 27 -9 -6 -23
right_child=1 4 7 5 28 23 13 11 12 18 14 -13 -14 22 -16 -17 17 -19 -20 -21 -22 29 -24 -25 -26 -27 -28 -29 -30 -31
leaf_value=-6.1358909916393936 -5.3815644760948738 -1.792833177669878 -7.4002741960945881 -4.9168231759821328 -4.9856433359639984 -2.1466885937719091 -3.4030247412621972 -2.6596407544724103 -5.5837567260113135 -2.8617312076218102 -0.45293515814955032 -9.1688983572156797 -9.0080034799095419 0.81371030872015926 -0.82952053016341676 1.6625883970223985 -2.6150486833430251 -5.165217032416062 -6.2425123058259482 -0.21886757617550237 2.4210776870604604 -1.2465907168569619 2.0799089304420577 -0.33342104114260418 0.83626875218322794 -2.8298338894443265 1.9989876337260184 -0.69378536750036379 2.3542096976300755 0.11805585854542783
leaf_count=385 168 622 95 93 28 921 120 515 233 460 1527 38 67 6665 867 2709 1105 266 82 504 192 1847 1290 1112 2693 406 167 1986 3710 1126
internal_value=0 1.64051 -7.15445 -0.578669 4.06848 0.853346 2.52308 -4.06909 -11.251 -4.43652 2.06529 -2.64241 -9.62213 3.17775 2.28544 2.9174 -8.97359 -7.7758 -3.79118 -6.21491 -2.27144 -3.38472 3.3968 -3.84959 1.23257 -12.3216 -3.01567 -3.66197 7.6641 -2.43247
internal_count=31999 26040 5959 13605 12435 9922 8697 3399 2560 3683 7889 2898 2175 8075 7796 6929 2108 1875 3515 1609 2860 3433 7955 2033 4220 501 2668 2501 3738 2973
shrinkage=0.3


Tree=7
num_leaves=31
num_cat=0
split_feature=8 5 5 5 9 8 7 8 9 1 8 1 1 1 1 13 1 8 7 23 8 8 9 24 13 1 8 15 24 1
split_gain=200646 101110 86763 54267.9 38360.8 47535.6 32064.4 30324.8 33134.1 25234.9 24132.2 23815.4 20982.4 21003.1 18904.2 18447.5 18273.4 17735.4 17349.6 17061.5 15530.3 14877.9 13575.1 12816.9 12510.9 12192 11935.8 13748.1 11676.4 11447
threshold=-0.41731618602234338 -0.23626373626373623 -0.30219780219780218 -0.96153846153846145 -0.5122131298837137 -0.83729540140296177 0.37625250501002017 -0.92640945700181854 -0.38522118993416604 -1.0999999999999999 -0.55488438555468944 1.8333333333333337 1.2333333333333336 -1.033333333333333 1.7666666666666668 -0.63333333333333319 0.50000000000000011 0.52513639906469245 -0.20040080160320636 -0.22820849759088915 1.5729410236425052 -0.95226032735775512 -0.84415184888943584 -0.13776672881707061 -0.61111111111111105 -1.0000000180025095e-35 0.055339049103663371 1.1122448979591837 4.3362336855189563 -1.0000000180025095e-35
decision_type=2 2 2 2 2 2 2 2 2 2 2 2 2 2 2 2 2 2 2 2 2 2 2 2 2 2 2 2 2 2
left_child=2 3 7 26 5 21 12 -1 15 -5 -6 17 13 -3 24 -9 28 19 -12 25 29 22 -4 -17 -7 -11 -2 -28 -15 -8
right_child=1 6 4 9 10 14 20 8 -10 11 18 -13 -14 16 -16 23 -18 -19 -20 -21 -22 -23 -24 -25 -26 -27 27 -29 -30 -31
leaf_value=-5.5641836675522969 -5.5014840476965308 -4.2896306033134453 -2.7015284406750872 -2.640919827839483 -3.3318516595636596 -2.2730175147737777 0.80529263085764113 -3.7399180668470171 -5.1158909618596953 -2.74025037829706 -2.2077153922888821 -4.6055694883154468 -1.0200233351579406 0.35696282953104169 -2.1941271432576346 -2.2884840134727011 1.5945204167502822 0.67796289722684244 0.4298968790074516 -0.033079141575711922 2.7835757122530507 -0.91279747382324838 -10.762480305433273 -0.75696184965768287 1.0755221571594975 -0.54470037916718528 -1.6278309169070955 -5.9835195205532594 1.790213385745193 1.6847743863693732
leaf_count=274 139 75 314 347 595 105 2398 393 320 384 442 101 691 5233 188 942 1786 2572 456 4418 713 1164 20 1029 2302 559 398 78 567 2996
internal_value=0 1.5132 -4.14704 -1.11903 -1.82812 -0.245408 3.1509 -8.52617 -7.50315 -0.453696 -6.16707 -0.093075 1.87751 2.35353 2.34385 -6.21045 2.51817 0.101195 -2.8945 -0.934457 4.8924 -4.73081 -10.6141 -4.96307 3.09817 -4.79584 -10.1859 -7.80526 1.65692 4.31262
internal_count=31999 23455 8544 8996 5586 4093 14459 2958 2684 8381 1493 8034 8352 7661 2595 2364 7586 7933 898 5361 6107 1498 334 1971 2407 943 615 476 5800 5394
shrinkage=0.3


Tree=8
num_leaves=31
num_cat=0
split_feature=13 5 1 7 12 5 1 1 8 9 19 1 13 15 21 1 5 15 10 5 1 1 8 15 15 10 1 1 1 7
split_gain=105050 61828.6 56942.5 42461.1 34259.6 22304.9 20184.9 17858 20535.7 24891.7 16728.4 16558 15867.2 15348.1 16216.5 15135.9 14407.2 13513 11376.6 11269.1 14236.8 21352.1 11608.7 11162.6 11106.8 10599.8 9845.2 9539.57 10968.7 9490.07
threshold=-0.47777777777777769 0.46703296703296709 1.5666666666666671 -0.15601202404809617 1.0000000180025095e-35 -0.9725274725274724 -1.3666666666666665 0.56666666666666676 -0.43615224733697056 -0.24118624253983878 1.0000000180025095e-35 -0.7666666666666665 -0.6777777777777777 -0.15306122448979589 -0.26422319474835881 -0.69999999999999984 -0.51098901098901084 0.071428571428571438 -1.0000000180025095e-35 0.36813186813186821 1.1666666666666667 0.30000000000000004 0.79968823070927531 -0.13265306122448975 -0.11224489795918366 -1.0000000180025095e-35 1.2333333333333336 0.50000000000000011 1.1666666666666667 -0.099599198396793556
decision_type=2 2 2 2 2 2 2 2 2 2 2 2 2 2 2 2 2 2 2 2 2 2 2 2 2 2 2 2 2 2
left_child=4 2 3 5 6 -2 -1 8 9 -7 26 -5 23 14 -6 -15 -11 -13 -10 20 21 22 -14 -8 -4 -18 29 -12 -29 -3
right_child=1 10 24 11 13 7 12 -9 18 16 27 17 19 15 -16 -17 25 -19 -20 -21 -22 -23 -24 -25 -26 -27 -28 28 -30 -31
leaf_value=-7.5512339199844156 -4.0570544175073211 0.083792007242514066 -3.5628373710182282 -0.68859207130131728 -4.3360280683041008 -1.21923927658936 -4.7413445623952946 0.56980158510103895 0.22610919970902341 -12.220132288566003 0.948919231404875 0.23336443686222869 -1.13514194806202 -5.505244871507208 -1.187603480137813 -1.285618147319697 -0.65871651080938476 0.95968428240381332 -0.70289096180077215 1.3497116378400213 -3.2190371951702015 1.1008810485920975 2.6372220920374638 -0.79177384251548388 -1.3164125771608111 -8.0907217579503214 -0.70589906793929558 2.3283374666824619 0.73570264143646846 1.1527434712971494
leaf_count=38 153 1382 436 1035 504 1634 134 1406 2137 26 2594 4877 1578 83 208 978 39 4372 2667 301 173 623 77 124 363 31 562 1276 560 1628
internal_value=0 0.764423 -0.209907 0.149408 -4.30069 -1.56409 -2.26754 -1.33364 -2.02932 -4.98355 3.09931 1.49785 -1.97839 -7.79592 -11.3875 -5.3857 -20.6328 1.92232 -0.965456 -1.2754 -1.98454 -1.32037 -3.19877 -9.477 -8.47415 -13.1668 1.48913 4.39763 6.14189 2.2065
internal_count=31999 27178 19176 18377 4821 8093 3048 7940 6534 1730 8002 10284 3010 1773 712 1061 96 9249 4804 2752 2451 2278 1655 258 799 70 3572 4430 1836 3010
shrinkage=0.3


Tree=9
num_leaves=31
num_cat=0
split_feature=23 1 8 9 8 1 13 1 1 1 15 27 8 24 24 5 5 6 5 4 9 5 10 27 9 13 15 5 1 9
split_gain=71437.5 50927.9 31371.3 34626.4 24074.6 23783.7 22750.8 21155.1 17745.4 17760.1 17204.8 15294.6 13122.7 12548.7 11542.4 11114.7 10638.2 10175 14224.3 10548.7 9677.81 9448.63 8974.74 8309.8 8259.31 8167.33 8013.4 7838.78 7668.17 7724.9
threshold=-0.23346473937801135 -0.7666666666666665 -0.59190698882826698 -0.53651633544576383 -0.63373603533385281 -1.0000000180025095e-35 1.9888888888888892 2.1666666666666674 2.2333333333333338 -1.0000000180025095e-35 -0.071428571428571411 1.6250000000000002 -0.92563003377500641 0.58773565361508184 -0.13735239279055311 -0.91758241758241754 -0.79670329670329665 -1.0000000180025095e-35 -0.70879120879120872 1.0000000180025095e-35 -0.64511167169137995 -0.95054945054945039 0.16666666666666669 1.3750000000000002 0.028363994339506555 -0.56666666666666654 -0.15306122448979589 0.23626373626373628 1.2333333333333336 -0.30160585738017592
decision_type=2 2 2 2 2 2 2 2 2 2 2 2 2 2 2 2 2 2 2 2 2 2 2 2 2 2 2 2 2 2
left_child=5 4 3 12 -2 26 8 14 9 13 20 22 -3 17 27 -14 -5 18 -4 -20 -11 -16 -6 -15 -18 -9 -1 -7 29 -22
right_child=1 2 6 16 11 7 -8 25 -10 10 -12 -13 15 23 21 -17 24 -19 19 -21 28 -23 -24 -25 -26 -27 -28 -29 -30 -31
leaf_value=-2.7668662691057122 -5.2530759529030631 -2.1492421450742176 -3.5299422213840379 -8.5114879050562458 0.3561255533665002 -1.1497282661250003 1.4029814233375415 -7.7052617819979785 -3.7424972435261341 -3.265179789811373 1.0112390511013443 -1.8047092542156722 -3.7856812804478865 0.80501942982685593 -4.3478622504182765 0.1968848123772704 -2.3679530091326071 0.0088941438285095875 -0.40492312390585966 -6.5288721896134891 1.2990680649958528 0.51998635592766196 -1.2252419453833439 -0.066086580511005383 -8.3621386267922144 -2.5742723443940894 -1.4077059035159081 -0.098650125269073158 -0.97633595830854258 0.16181347956594702
leaf_count=604 119 267 171 31 858 1625 2134 32 94 72 5644 949 65 2628 37 2123 347 3898 961 26 682 1193 518 1577 22 219 1104 1052 409 2538
internal_value=0 0.708815 1.15721 -1.95147 -3.63735 -3.15277 1.58321 -1.86223 1.2302 1.29944 2.27204 -2.9273 -0.54573 0.318015 -1.29052 0.261909 -10.5792 -0.74356 -3.34629 -1.88748 0.596445 1.24518 -0.797286 1.59443 -9.08443 -10.7614 -6.29449 -2.4556 0.824218 1.34228
internal_count=31999 26133 23689 2855 2444 5866 20834 4158 18700 18606 9345 2325 2455 9261 3907 2188 400 5056 1158 987 3701 1230 1376 4205 369 251 1708 2677 3629 3220
shrinkage=0.3


Tree=10
num_leaves=31
num_cat=0
split_feature=13 23 27 1 1 1 8 5 1 8 1 8 1 9 24 1 10 5 13 13 7 9 5 22 26 21 24 1 1 8
split_gain=48014.6 34767.9 24592 24046.7 33533.5 16696.7 15901.8 15506.1 13190 13567.5 12839.7 12642 13691.1 13529.5 12134.6 10840.5 9816.51 10937.3 8548.15 7887.89 7681.72 17521.3 7826.12 7653.37 8401.13 7524.29 7344.55 7320.31 7059.08 7484.75
threshold=-0.63333333333333319 -0.1940429259745948 0.37500000000000006 1.0000000180025095e-35 1.2333333333333336 -0.69999999999999984 -0.32534424525850864 0.46703296703296709 -1.2999999999999996 0.28565861262665643 0.56666666666666676 -0.72064172512340852 0.4333333333333334 -0.64511167169137995 -0.073130308680339748 2.1000000000000005 1.0000000180025095e-35 -0.95054945054945039 0.055555555555555559 0.98888888888888904 -0.29979959919839677 -0.56112717652125754 -0.84065934065934056 21.500000000000004 1.5000000000000002 -0.1198030634573304 -0.097990470271390087 1.3 2.2333333333333338 -0.81793972460379305
decision_type=2 2 2 2 2 2 2 2 2 2 2 2 2 2 2 2 2 2 2 2 2 2 2 2 2 2 2 2 2 2
left_child=8 3 11 6 10 -4 20 28 -1 -10 26 13 16 -3 -15 23 -13 -18 -9 -19 21 -2 -23 24 -7 -11 -5 -14 29 -6
right_child=1 2 5 4 7 15 -8 18 9 25 -12 12 27 14 -16 -17 17 19 -20 -21 -22 22 -24 -25 -26 -27 -28 -29 -30 -31
leaf_value=-9.2437335286821636 -1.5099736309144645 -0.22801365228477874 -0.98493734752357809 -0.50016995496595551 -2.9629601205424261 0.079908886082502087 -0.36449830302504771 0.95145211591733025 -2.0794740212009963 2.1250662161366027 0.83201935447263986 0.81477169764578816 1.5008369661193255 -1.5639856888548187 -9.3998585662451291 -5.685664220513968 -2.2684146835011725 -0.008934734834151135 -1.1474476885851297 0.92116770592784014 -0.9771400637195149 -9.5989728245884169 -3.8924696005600157 -2.283577030667892 1.3433439999774628 -1.6097696517662303 0.63385847922972338 -0.011014858787295533 -3.3503092773717729 -1.0092481500724
leaf_count=21 720 431 1503 1643 227 7413 1542 383 1098 119 2448 3948 2065 46 29 29 161 2916 321 1142 759 24 219 117 506 82 748 335 211 793
internal_value=0 0.208772 0.951153 -1.31778 -0.243399 -0.223079 -3.5475 -3.76187 -5.95076 -5.54883 1.16355 1.96579 2.1996 -2.91708 -15.3129 0.347193 1.58256 0.522008 -0.0185821 0.842714 -5.63619 -7.51127 -14.8536 0.41684 0.535462 2.00467 -0.484669 4.29936 -5.90263 -4.81348
internal_count=31999 30679 20641 10038 6774 9568 3264 1935 1320 1299 4839 11073 10567 506 75 8065 8167 4219 704 4058 1722 963 243 8036 7919 201 2391 2400 1231 1020
shrinkage=0.3


Tree=11
num_leaves=31
num_cat=0
split_feature=15 1 8 12 9 5 1 1 24 27 13 13 24 23 21 5 12 10 1 9 4 8 9 10 24 1 23 1 18 8
split_gain=31542.6 17991.1 18061.3 17692.6 15792.7 15073.4 12448.4 10445.9 9474.42 8940.92 8743.01 8546.12 7819.38 7020.75 6122.61 6100.62 7373.39 6203.84 6037.9 5988.73 5928.65 7584.43 6392.6 6282.34 7516.64 7018.72 5964.33 5578.33 5993.84 5330.77
threshold=-0.11224489795918366 1.0000000180025095e-35 -0.80832683813977646 1.0000000180025095e-35 -0.72005168276625853 -0.9725274725274724 1.1666666666666667 2.2333333333333338 2.0992334783509432 0.62500000000000011 -0.6777777777777777 1.8555555555555558 -0.13776672881707061 -0.062636881296539618 1.7981400437636763 -0.43406593406593402 -1.2499999999999998 3.7222222222222228 2.9000000000000004 0.42822863471359135 1.0000000180025095e-35 -0.34586905689789543 1.370639266596936 -1.0000000180025095e-35 0.12616532007458051 -0.29999999999999993 -0.114323258869908 0.56666666666666676 1.0000000180025095e-35 2.3480124707716299
decision_type=2 2 2 2 2 2 2 2 2 2 2 2 2 2 2 2 2 2 2 2 2 2 2 2 2 2 2 2 2 2
left_child=3 2 4 7 -2 14 11 10 9 13 -1 27 -5 -7 19 17 -17 -11 -8 -4 23 26 -23 -12 25 -25 -22 28 -3 -13
right_child=1 6 5 12 -6 8 18 -9 -10 15 20 29 -14 -15 -16 16 -18 -19 -20 -21 21 22 -24 24 -26 -27 -28 -29 -30 -31
leaf_value=-2.5554815637714725 -1.4473713878956107 0.08671572685412153 0.80470681584106296 -1.5969494546808629 -8.9261650085449222 -0.27423475047304879 -0.14187457213011304 -3.4383132832857326 0.56658855798491015 -1.0125196339210634 0.22276780921180928 1.2740445453609139 -0.57169953299745846 0.42166090435806536 -5.5408523161411285 -1.6870323717816393 0.011193625616527113 -6.227318215370178 -4.1806651979684828 -3.4096586154800064 -1.7809742142987806 -0.093585967691615216 -4.1421763766753044 -1.798517187997746 0.19714062072115332 -0.42446735775727806 -6.1017383322522445 0.89018299016818736 0.89054796178901441 3.7792367644877318
leaf_count=136 432 2792 53 1365 27 2150 1651 89 2685 921 3702 968 1314 3319 50 264 1792 21 34 71 129 460 38 414 1439 1744 37 2628 1191 83
internal_value=0 0.680253 -0.141477 -1.41623 -6.291 0.10774 1.71632 -0.686372 0.25184 -0.267208 -0.567969 2.25751 -3.64694 0.493623 -9.12795 -1.65513 -0.689555 -3.76258 -0.744565 -5.36119 -0.432185 -3.29298 -1.34172 -0.171935 -1.11312 -2.29357 -9.14679 1.83641 1.09026 4.90629
internal_count=31999 21132 11785 10867 459 11326 9347 8188 11152 8467 8099 7662 2679 5469 174 2998 2056 942 1685 124 7963 664 498 7299 3597 2158 166 6611 3983 1051
shrinkage=0.3


Tree=12
num_leaves=31
num_cat=0
split_feature=12 8 1 1 1 7 5 9 8 11 9 8 5 15 5 8 1 24 21 8 9 9 9 8 9 9 9 8 9 18
split_gain=19142.5 17701.5 15127.6 13386.2 9459.99 8609.96 10913 9871.75 9853.54 9529.1 8857.17 8139.64 7708.17 7000.41 6999.6 6635.61 6567.52 6500.84 8364.23 6641.17 5900.49 5786.16 6284.4 5586.31 10791.9 7112.28 5437.9 9060.63 8305.98 5909.08
threshold=1.0000000180025095e-35 0.95492335671603046 0.10000000000000002 1.3 -2.0999999999999996 0.37625250501002017 -0.56593406593406581 -0.5122131298837137 -0.54890880748246285 1.0000000180025095e-35 -0.89171229926782736 -0.76467913743829552 -0.9725274725274724 1.5612244897959184 0.51098901098901106 -0.57748765913224209 -0.43333333333333329 0.37228091982597894 0.20733041575492342 1.2823460639127051 0.23841752291884569 -0.64511167169137995 -0.81972558912200821 0.10411795271499104 0.2658586107180213 0.26105949670829992 0.18839598843290467 0.21986230189659672 1.0261490186427122 1.0000000180025095e-35
decision_type=2 2 2 2 2 2 2 2 2 2 2 2 2 2 2 2 2 2 2 2 2 2 2 2 2 2 2 2 2 2
left_child=4 2 12 -4 -1 6 9 10 16 23 15 -7 -2 21 -5 -8 -9 19 -19 20 -10 22 -12 24 -6 -25 -13 28 -28 -29
right_child=1 -3 3 14 5 11 7 8 17 -11 13 26 -14 -15 -16 -17 -18 18 -20 -21 -22 -23 -24 25 -26 -27 27 29 -30 -31
leaf_value=-2.6514766335487363 -4.0053039747476573 0.8256599254410063 0.14963332744902233 -1.7759957773277251 -0.54407920775750862 -2.4494582370917 -0.59668713495060433 -3.7300367670003758 -0.026061345951944124 -4.3208103835050542 0.6530515968081142 0.77181729681063926 -1.099319309223044 2.0029545969196727 0.076149840951534625 -5.3829014629125593 -0.82544125287778802 1.06917905145992 0.084281875415171681 1.1988913409676283 -0.70834720683110131 0.9871125268700035 -0.62957979260185326 0.9478351043926625 -3.7949687198735771 -0.39877440702339945 -0.70313715392354792 0.12877312034960472 -5.7964520077551569 0.85429179618665396
leaf_count=111 85 841 2380 614 2154 90 199 86 3845 56 840 2612 2450 336 262 30 378 1058 2912 310 1622 1401 582 531 96 1053 409 3134 31 1491
internal_value=0 -1.53487 -2.15747 -0.73135 0.37327 0.413755 0.0246538 0.447138 -0.0436354 -1.4523 1.92627 1.2899 -3.9892 2.3616 -4.07348 -4.07901 -4.54598 0.170696 1.15585 -0.506312 -0.761627 1.84803 0.426976 -1.26315 -2.27595 0.175486 1.40074 0.796348 -3.53995 1.20888
internal_count=31999 6632 5791 3256 25367 25256 17489 13599 10211 3890 3388 7767 2535 3159 876 229 464 9747 3970 5777 5467 2823 1422 3834 2250 1584 7677 5065 440 4625
shrinkage=0.3


Tree=13
num_leaves=31
num_cat=0
split_feature=5 12 7 23 21 24 21 11 13 5 9 9 13 19 12 18 13 9 23 13 12 9 24 13 21 5 12 24 23 21
split_gain=11930.5 12533.9 7517.62 6019.6 11464 6862.64 7089.41 5821.23 7004.21 7734.32 14711.2 6029.29 5704.07 5188.27 5019.98 4861.18 5135.42 5209.94 4563.72 4472.32 4258.42 4117.39 5253.75 4053.25 3999.87 3998.53 5096.46 4492.86 3996.09 4403.84
threshold=0.46703296703296709 1.0000000180025095e-35 -0.49774549098196391 -0.0048182216381953561 -0.049781181619256008 -0.018852289206546507 -0.26203501094091897 1.0000000180025095e-35 -0.23333333333333331 -0.81868131868131855 -0.086076416661539451 0.65815541746139183 -0.055555555555555546 1.0000000180025095e-35 -1.2499999999999998 1.0000000180025095e-35 0.10000000000000002 -0.89171229926782736 0.16688567674113011 -0.56666666666666654 -1.2499999999999998 -0.36442502922537379 1.2817484980319043 -0.055555555555555546 6.1859956236323859 0.32417582417582419 -0.74999999999999989 -0.12036461570333538 -0.23083661848445025 -0.2707877461706783
decision_type=2 2 2 2 2 2 2 2 2 2 2 2 2 2 2 2 2 2 2 2 2 2 2 2 2 2 2 2 2 2
left_child=1 3 -3 5 18 7 -7 8 -1 10 23 25 -4 -11 24 16 17 -2 -5 -17 -20 -16 -23 -10 -6 26 -9 -28 -18 -30
right_child=15 2 12 4 14 6 -8 11 9 13 -12 -13 -14 -15 21 19 28 -19 20 -21 -22 22 -24 -25 -26 -27 27 -29 29 -31
leaf_value=-0.0028811842623165363 -1.6442614632168995 -0.90890320408315739 -0.51985384503575904 0.23032319418569602 -0.40125065786795239 1.8239666244980284 0.046652636103208217 -6.1162431974709026 -4.3006360317979544 -0.91999242888933053 -0.6630362664317262 2.060618549379809 0.41694870469292283 0.031300643457113662 0.66770008430747074 4.658811973035335 -0.72037951010480017 0.60140322071586905 -0.55984967312505163 0.62480803532657858 1.5860672402484906 -0.19836306156048172 0.3248104406663227 -10.007719121873377 -2.5390869890591676 0.69038636428969247 -3.1957108379103416 1.3733293869495391 1.7065476856039214 0.0070695662369595416
leaf_count=2704 97 2468 1571 505 1074 220 2467 40 21 1434 87 29 932 806 1037 25 673 2243 93 2329 792 4003 3039 24 85 28 86 25 144 2918
internal_value=0 -0.380692 -1.79123 -0.00369286 0.488992 -0.660607 0.640572 -1.32228 -1.10981 -2.364 -9.8026 -6.50735 -0.570108 -1.92566 0.0861265 1.00552 0.53279 1.69438 3.16646 2.2255 4.53521 0.365333 0.091381 -24.4814 -1.86013 -8.67443 -10.7097 -7.22216 -0.194952 0.289976
internal_count=31999 23570 4971 18599 10628 7971 2687 5284 5076 2372 132 208 2503 2240 9238 8429 6075 2340 1390 2354 885 8079 7042 45 1159 179 151 111 3735 3062
shrinkage=0.3


Tree=14
num_leaves=31
num_cat=0
split_feature=8 9 1 1 1 8 9 10 1 1 23 13 23 7 9 26 9 27 24 11 11 13 1 8 15 10 21 23 21 15
split_gain=10206.3 9875.66 9197.41 8001.46 7892.14 8278.03 9464.48 7795.47 6468 7219.88 6303.04 7178.72 5178.04 4982.55 4930.81 4785.7 5555.02 5252.29 4998.6 4591.73 4232.23 6313.45 4544.9 4128.48 5494.19 4113.54 4045.35 5484.47 3907.63 3877.05
threshold=1.3643154065991172 2.5331323447978837 -1.4333333333333329 2.2333333333333338 -1.0000000180025095e-35 -0.82703299558326837 -0.81972558912200821 1.0000000180025095e-35 1.2333333333333336 0.56666666666666676 -0.15812527376259305 -0.27777777777777773 0.85194918966272459 2.4847695390781568 0.68233556881806445 1.0000000180025095e-35 -0.5122131298837137 3.6250000000000004 0.38719701678060914 1.0000000180025095e-35 1.0000000180025095e-35 0.14444444444444446 -0.29999999999999993 -1.0399454403741231 0.030612244897959186 -0.49999999999999994 -0.25875273522975922 -0.23346473937801135 0.13840262582056898 -0.071428571428571411
decision_type=2 2 2 2 2 2 2 2 2 2 2 2 2 2 2 2 2 2 2 2 2 2 2 2 2 2 2 2 2 2
left_child=1 2 25 4 5 6 23 10 9 12 -7 19 -6 26 -13 17 -17 18 20 -12 -9 22 -22 24 -4 -1 27 -2 -25 -27
right_child=13 -3 3 -5 8 7 -8 15 -10 -11 11 14 -14 -15 -16 16 -18 -19 -20 -21 21 -23 -24 28 -26 29 -28 -29 -30 -31
leaf_value=0.89073686018586151 -0.73298223286362008 -4.6477514856628002 -6.1590765055682928 -1.4414319350670335 -0.077198116513075107 -0.38127750069160171 -3.4761155213380968 -0.49549519631341843 -0.32217453489953557 0.5075571191527426 0.99172432078527939 0.21129611849953919 0.54063893393693363 2.0059389979511066 -0.74200730459845576 4.8855294491350651 0.29957016001740272 -1.0152725432989551 0.042940646488183125 -2.4458550263196228 -7.2041952978074546 -0.20090715213255447 -1.4498206240790232 -0.22224034739230744 0.40124502897262571 -5.1555484361946577 0.32746459566332187 2.6812271584272382 -3.072379635496342 -1.7900103996139625
leaf_count=30 59 42 27 358 6305 1796 129 2532 2335 4877 1224 3239 1514 207 575 25 484 1131 2151 36 30 55 21 549 20 48 1917 150 47 86
internal_value=0 -0.169258 -0.147534 -0.10596 -0.0481574 -0.586387 -3.76987 -0.401588 0.455696 0.737017 0.339049 0.908917 0.141447 2.00302 0.225253 -1.19303 1.74938 -1.44602 -0.988272 2.97836 -1.91081 -8.10132 -16.1158 -2.20157 -11.2248 -7.61555 1.54702 5.72469 -1.49 -9.98525
internal_count=31999 29666 29624 29460 29102 14071 772 13299 15031 12696 6870 5074 7819 2333 3814 6429 509 5920 4789 1260 2638 106 51 643 47 164 2126 209 596 134
shrinkage=0.3


Tree=15
num_leaves=31
num_cat=0
split_feature=13 5 8 9 4 9 5 8 24 12 1 24 27 13 8 9 9 23 13 5 24 5 5 5 7 1 8 27 23 1
split_gain=11039 7919.73 7197.86 26204.5 15709.8 10675.6 12149.7 8961.14 6828.36 5906.25 6221.06 5796.66 6108.52 5920.64 7533.23 5976.51 5555.98 6013.29 5487.22 5484.14 5401.47 4902.45 10357.3 5802.49 5309.32 4729.56 9193.6 5015.43 4724.1 6871.36
threshold=-0.6777777777777777 0.82967032967032972 -0.13555468952974792 -0.21675998277241124 1.0000000180025095e-35 0.20408539961853192 -0.67582417582417575 -0.33235905429981805 -0.0039361922519163027 1.0000000180025095e-35 -1.2999999999999996 7.4731717422829922 1.0000000180025095e-35 -0.32222222222222213 0.75857365549493394 1.0261490186427122 -0.59822801944256443 -0.21419185282522993 -0.49999999999999994 -0.84065934065934056 -0.13735239279055311 -0.70879120879120872 0.15934065934065936 -0.85164835164835151 -0.19969939879759516 -0.23333333333333331 -0.52559106261366573 3.3750000000000004 -0.073149364870784037 -0.7666666666666665
decision_type=2 2 2 2 2 2 2 2 2 2 2 2 2 2 2 2 2 2 2 2 2 2 2 2 2 2 2 2 2 2
left_child=21 2 3 4 9 7 -7 8 -5 -2 -11 12 13 14 15 -4 -15 -18 -8 -10 -14 23 -23 -1 -24 26 -21 -27 29 -9
right_child=1 -3 11 5 -6 6 18 28 19 10 -12 -13 20 16 -16 -17 17 -19 -20 25 -22 22 24 -25 -26 27 -28 -29 -30 -31
leaf_value=-1.4189923428694953 0.28616127640421585 0.44392762072221092 0.6126887565961262 -0.85333720388974976 -1.5747597063562155 -7.2508399136364456 -6.6462136486172678 -5.5927954638004307 -7.4157855228944252 -5.5066300141811375 -0.19738260899015667 0.77617170811919756 2.2364422960491739 3.5200202462978138 2.5238413646056941 -4.2689621375954667 -0.40918792492667638 0.26509987271186108 -1.4068008556795519 -9.3457492578288779 -0.16959447468465341 -4.4011997290726361 -1.5855141007778595 2.0731129218425068 3.939646246122277 -0.67996787849399787 -2.6325143165681717 -4.8572297774255278 -0.0603077729345343 -0.91986872016161447
leaf_count=182 6036 3765 1211 311 523 48 20 30 22 20 2896 1099 85 43 196 23 1581 4817 179 23 6964 116 49 56 23 135 91 32 917 506
internal_value=0 0.118629 -0.0656585 -0.658715 0.0780712 -3.67559 -9.8891 -2.9331 -6.13612 0.389305 -0.779324 0.370795 0.207532 0.813058 2.65374 1.73901 0.404399 0.328259 -6.44458 -9.51469 -0.468605 -5.0061 -8.82301 -1.99107 0.598226 -8.32429 -13.2898 -4.93467 -1.57958 -3.93804
internal_count=31999 31573 27808 11789 9475 2314 247 2067 614 8952 2916 16019 14920 7871 1430 1234 6441 6398 199 303 7049 426 188 238 72 281 114 167 1453 536
shrinkage=0.3


Tree=16
num_leaves=31
num_cat=0
split_feature=10 8 9 8 9 8 4 24 27 5 8 4 8 19 24 24 9 8 7 5 8 9 9 15 24 5 9 13 13 8
split_gain=5928.65 6131.8 9861.44 6619.84 5904.88 5842.95 6832.46 6114.4 7217.86 5757.42 5077.82 5099.86 4991.51 4978.12 6619.2 5252.65 7217.42 13414.9 7326.75 7954.99 5837.58 7927.83 5974.89 5973.02 7120.13 8848.76 5107.19 4936.2 4826.59 8396.52
threshold=2.6111111111111112 0.58502208365809338 0.22623515658647633 0.27000519615484553 -0.92259890481757212 0.24675240322161612 1.0000000180025095e-35 2.4311166355914651 22.375000000000004 0.67582417582417598 -0.23584047804624569 1.0000000180025095e-35 -0.49298519095869048 1.0000000180025095e-35 -0.13155168841930803 0.37228091982597894 -0.54888328308619938 -0.52559106261366573 -0.20040080160320636 -0.56593406593406581 -0.8640555988568458 -0.83756844890174109 -0.89171229926782736 0.80612244897959195 -0.13776672881707061 -0.58791208791208782 -0.32738571340675565 -0.25555555555555548 -0.56666666666666654 -0.34586905689789543
decision_type=2 2 2 2 2 2 2 2 2 2 2 2 2 2 2 2 2 2 2 2 2 2 2 2 2 2 2 2 2 2
left_child=1 2 5 12 -2 6 13 8 9 28 11 -6 -4 15 -15 16 20 18 19 -18 21 23 -22 24 -1 -26 -21 -12 -8 -30
right_child=4 -3 3 -5 10 -7 7 -9 -10 -11 27 -13 -14 14 -16 -17 17 -19 -20 26 22 -23 -24 -25 25 -27 -28 -29 29 -31
leaf_value=0.56754019590823546 3.9358205905327428 0.29225740468589601 -5.2195433467626566 -0.15697704004144283 -1.3742662544790849 0.75960036029102385 -0.45935839442495563 0.27324755025318764 -5.5035559745505447 2.2094742178916928 1.4093735138594639 -6.1125416327606539 -0.86025689779749759 0.84716386364692609 0.1176632601598581 0.43046664624741038 -5.7640889311674979 -0.21279445271249608 -0.6939976121214303 -1.314782349173985 -1.9818112446906717 -2.189848889369657 0.4496917417907631 -1.7167537663830443 -4.5190078228712078 -0.23087653469359665 -4.9371388800788756 -0.55422903094311571 -3.6926262189807559 -0.7440575190197487
leaf_count=851 26 6763 24 2729 289 1018 458 452 32 50 128 22 1575 1438 5053 1680 64 3809 297 189 94 187 2807 176 58 171 43 1154 145 217
internal_value=0 0.134649 -0.105764 -1.46994 -1.82929 0.200324 0.0704108 -2.09111 -3.59541 -3.05289 -2.07328 -5.69817 -3.08562 0.243414 0.930917 -0.184609 -0.495695 -1.39811 -5.82243 -9.34338 0.418768 -1.22489 1.23635 -0.320473 0.559859 -4.38984 -6.62056 -1.19392 -3.68812 -6.41705
internal_count=31999 30380 23617 4328 1619 19289 18271 1354 902 870 1593 311 1599 16917 6491 10426 8746 4402 593 296 4344 1443 2901 1256 1080 229 232 1282 820 362
shrinkage=0.3


Tree=17
num_leaves=31
num_cat=0
split_feature=1 13 8 5 10 12 15 1 10 11 1 13 8 9 8 8 1 12 21 9 8 24 8 5 23 23 5 21 13 23
split_gain=6173.65 5952.09 5416.09 4568.54 5617.67 4461.25 5226.92 5058.18 5576.33 5562.7 5376.01 5019.52 4239.94 3784.89 16188.5 8560.15 5822.58 7339.15 6522.06 5787.14 5138.52 4671.83 3953.45 3750.28 3679.36 3621.93 3540.15 3464.04 6952.67 5007.61
threshold=-2.0999999999999996 0.94444444444444453 2.6610158482722794 1.1153846153846156 2.6111111111111112 -1.2499999999999998 -0.13265306122448975 1.6333333333333335 0.27777777777777785 1.0000000180025095e-35 -0.7666666666666665 -0.49999999999999994 1.7985190958690576 -0.54888328308619938 -0.54046505585866444 -0.8743180046765392 -0.43333333333333329 1.0000000180025095e-35 -0.10667396061269145 -0.82852396480649715 -0.92563003377500641 -0.024652993577791587 0.14127045985970396 -0.093406593406593394 -0.091546211125711777 3.5882610600087608 -0.093406593406593394 -0.25984682713347917 -0.56666666666666654 -0.11607533946561541
decision_type=2 2 2 2 2 2 2 2 2 2 2 2 2 2 2 2 2 2 2 2 2 2 2 2 2 2 2 2 2 2
left_child=1 -1 3 4 5 -2 7 8 9 -7 24 -9 -12 15 16 19 18 -18 -15 -8 -21 -19 -17 -11 -10 -16 -20 29 -29 -6
right_child=2 -3 -4 -5 27 6 13 11 10 23 12 -13 -14 14 25 22 17 21 26 20 -22 -23 -24 -25 -26 -27 -28 28 -30 -31
leaf_value=-2.6924276409589725 -0.39416128482640933 1.4242898472198624 1.4742109656529991 0.51757610054651915 -0.02734728060732378 0.12308594270006777 -0.15912608166394543 -2.7712173448875546 -4.9206071988532418 -3.5560576696144905 -0.34627884078129839 -0.56400961820939532 -4.2039228534469233 -6.4605712266904964 0.091687991470305 0.66910687726738338 -0.27032908723002574 -1.7198374233801257 -3.8540564399957655 -6.6660140940676564 -1.2478426315113902 -5.5654945605567514 4.3196590165297186 -0.66342459970518297 -1.3281208955788912 0.7507982168031897 0.79428693343853118 -5.6066449691851936 -0.73110106841498868 4.7257255155931821
leaf_count=138 2275 41 228 1501 214 5205 764 118 38 57 1864 433 26 42 13953 2398 305 88 30 23 50 42 27 138 79 793 29 27 1051 22
internal_value=0 -5.83164 0.0576419 0.0225932 -0.0623389 0.0299893 0.14535 -0.532578 -0.315132 0.213836 -1.73837 -3.45566 -1.33116 0.436277 0.22755 1.41413 -5.17088 -3.58273 -12.0109 -1.34322 -9.84979 -9.87427 2.36584 -5.02988 -8.31637 0.423777 -5.23092 -2.08436 -2.84405 1.38579
internal_count=31999 179 31820 31592 30091 28777 26502 7958 7407 5400 2007 551 1890 18544 15282 3262 536 435 101 837 73 130 2425 195 117 14746 59 1314 1078 236
shrinkage=0.3


Tree=18
num_leaves=31
num_cat=0
split_feature=13 13 5 8 8 19 24 21 13 5 10 10 11 5 9 13 6 27 21 5 25 10 5 9 15 8 21 9 1 5
split_gain=4281.05 4010.57 8891.71 7361.89 5209.31 5142.11 6566.46 6121.29 5085.56 4940.87 4471.17 3943.61 4403.23 7748.65 4000.72 3780.28 3756.12 5621.47 5848.27 4150.33 3907.77 3890.43 4311.57 3729.63 3538.05 4863.87 4648.48 3544.74 3537.05 4842.41
threshold=-0.6777777777777777 -0.25555555555555548 0.28021978021978028 -1.0399454403741231 -0.35385814497272006 1.0000000180025095e-35 0.38719701678060914 -0.25875273522975922 -0.21111111111111108 -0.8296703296703295 2.6111111111111112 6.5000000000000009 1.0000000180025095e-35 -0.64285714285714268 0.60161201009044496 -0.52222222222222203 -1.0000000180025095e-35 3.6250000000000004 0.45897155361050335 -0.63186813186813173 14.500000000000002 6.2777777777777786 0.26923076923076933 2.1327139604996006 0.051020408163265314 -0.23584047804624569 1.9808533916849018 -0.63514428105580512 1.0000000180025095e-35 0.65384615384615397
decision_type=2 2 2 2 2 2 2 2 2 2 2 2 2 2 2 2 2 2 2 2 2 2 2 2 2 2 2 2 2 2
left_child=-1 2 11 -4 10 6 -3 9 -8 -7 15 12 23 -14 -15 -5 17 21 19 -19 -18 24 -23 -2 -9 26 27 -26 29 -17
right_child=1 5 3 4 -6 7 8 16 -10 -11 -12 -13 13 14 -16 28 20 18 -20 -21 -22 22 -24 -25 25 -27 -28 -29 -30 -31
leaf_value=-0.93948604697492755 0.077721209934136309 -0.38100197250787204 -4.5452771062436303 1.5936428395461062 1.5345031200090324 -2.5448397535544172 -1.5083614647388457 -0.55590920587621184 0.25878359323324956 0.89648482100530436 -3.2160153125894477 3.1340043372399098 -5.1843085122735877 -0.97877004458961703 3.4161124595573971 0.11143134130951873 0.083116888986187312 -3.6458112432488372 -1.7623419037348871 0.84829524218074737 1.7798239389284245 -4.7472900981252844 -0.31129419403435776 -3.9256244578531807 1.3139569038282268 0.65710155234036061 -4.0105505683882665 -0.85168614663269315 0.66837774174258346 -2.8448573927668961
leaf_count=426 7872 6707 23 245 644 39 155 661 2694 1009 29 37 38 166 21 187 8270 21 401 155 124 33 49 21 92 951 33 261 567 68
internal_value=0 0.0597752 0.586413 2.62283 2.85777 -0.181425 -0.729738 0.251642 0.54214 2.5614 1.53143 0.146168 0.0992207 -4.26283 -1.61742 1.86442 0.0326 -1.00363 -3.76531 1.04022 0.360605 -0.237533 -6.98837 0.223567 0.0395285 0.975192 -2.0186 -0.957564 0.836811 -2.25637
internal_count=31999 31573 9918 1763 1740 21655 9556 12099 2849 1048 1096 8155 8118 225 187 1067 11051 2657 577 176 8394 2080 82 7893 1998 1337 386 353 822 255
shrinkage=0.3


Tree=19
num_leaves=31
num_cat=0
split_feature=1 26 21 8 27 7 27 8 9 15 19 24 27 12 1 23 8 9 8 12 13 15 15 22 7 9 9 8 1 1
split_gain=4036.89 5701.36 5211.94 5188.06 3499.87 3321.84 3306.23 3183.47 7016.66 3957.39 3294.37 3719.61 3501.44 3237.2 3073.53 3035.69 2811.87 9701.4 4233.95 4323.99 3600.6 3245.52 3102.69 2790.02 2539.23 2538.27 2502.07 11882 3948.97 4741.45
threshold=-0.7666666666666665 1.5000000000000002 -0.097921225382932145 -0.73648999740192245 5.1250000000000009 -0.38111222444889775 4.3750000000000009 0.61373083917900784 0.67058389220451609 1.6224489795918371 1.0000000180025095e-35 1.2817484980319043 36.125000000000007 -1.0000000180025095e-35 -0.96666666666666656 0.82829610162067457 0.095544297220057334 -0.037100842921306922 -0.039555728760716995 1.0000000180025095e-35 -0.61111111111111105 0.19387755102040818 1.5612244897959184 1.0000000180025095e-35 -0.30611222444889774 0.57737033163108364 -0.58419984002953296 -0.59190698882826698 0.36666666666666675 0.50000000000000011
decision_type=2 2 2 2 2 2 2 2 2 2 2 2 2 2 2 2 2 2 2 2 2 2 2 2 2 2 2 2 2 2
left_child=3 26 -3 -1 23 -6 16 8 9 10 -8 12 13 -12 -9 -15 17 18 19 22 -18 -21 -5 -4 -19 -22 28 -28 -2 -30
right_child=1 2 4 6 5 -7 7 14 -10 -11 11 -13 -14 15 -16 -17 20 24 -20 21 25 -23 -24 -25 -26 -27 27 -29 29 -31
leaf_value=-2.2066127499522161 -0.051188724569804916 2.6232219972749466 1.0629576016572937 -0.59613459787325007 -2.1155768993738535 0.2701774390033595 -1.6321854329217345 2.0820447261574997 -6.3659511728720233 -3.3401858543356258 1.1125619104858171 0.91848806862586307 -4.1105074383061506 -4.5162236452102658 -0.91733671421966234 0.071527852863073352 -2.0496195114321178 -3.3561646650369101 2.7952014711168078 3.1526867376976324 0.9241876074899823 -0.90592454481124873 1.9237336620992542 -2.3856539160859858 -1.3246553056991914 -0.1151919919877283 -1.2479036113488384 0.0052168408927662962 1.4524757098946821 0.29128920925385404
leaf_count=129 3086 119 524 429 74 181 186 61 22 54 59 168 29 25 62 27 54 74 54 61 490 25 49 22 220 372 703 21761 362 2517
internal_value=0 0.118831 2.56891 -1.16993 1.6515 -1.4072 -0.853419 -2.71337 -3.709 -3.00601 -2.11753 -0.110735 -3.91757 -1.36136 1.90054 -7.11374 -0.148307 -1.39127 0.858295 0.0483864 1.08923 6.57619 -1.12607 3.08001 -6.11996 1.58546 0.039543 -0.11333 0.615257 1.45765
internal_count=31999 29349 920 2650 801 255 2521 693 570 548 494 308 140 111 123 52 1828 912 618 564 916 86 478 546 294 862 28429 22464 5965 2879
shrinkage=0.3


end of trees

feature importances:
Column_8=115
Column_5=113
Column_1=89
Column_13=56
Column_9=51
Column_24=28
Column_23=22
Column_21=19
Column_7=18
Column_12=17
Column_15=17
Column_10=14
Column_27=12
Column_11=7
Column_4=5
Column_19=5
Column_6=3
Column_18=3
Column_26=3
Column_22=2
Column_25=1

parameters:
[boosting: gbdt]
[objective: regression]
[metric: l2,l1]
[tree_learner: serial]
[device_type: cpu]
[data: ]
[valid: ]
[num_iterations: 100]
[learning_rate: 0.3]
[num_leaves: 31]
[num_threads: 0]
[max_depth: -1]
[min_data_in_leaf: 20]
[min_sum_hessian_in_leaf: 0.001]
[bagging_fraction: 0.8]
[bagging_freq: 5]
[bagging_seed: 3]
[feature_fraction: 0.9]
[feature_fraction_seed: 2]
[early_stopping_round: 0]
[max_delta_step: 0]
[lambda_l1: 0]
[lambda_l2: 0]
[min_gain_to_split: 0]
[drop_rate: 0.1]
[max_drop: 50]
[skip_drop: 0.5]
[xgboost_dart_mode: 0]
[uniform_drop: 0]
[drop_seed: 4]
[top_rate: 0.2]
[other_rate: 0.1]
[min_data_per_group: 100]
[max_cat_threshold: 32]
[cat_l2: 10]
[cat_smooth: 10]
[max_cat_to_onehot: 4]
[top_k: 20]
[monotone_constraints: ]
[feature_contri: ]
[forcedsplits_filename: ]
[refit_decay_rate: 0.9]
[verbosity: 0]
[max_bin: 255]
[min_data_in_bin: 3]
[bin_construct_sample_cnt: 200000]
[histogram_pool_size: -1]
[data_random_seed: 1]
[output_model: LightGBM_model.txt]
[snapshot_freq: -1]
[input_model: ]
[output_result: LightGBM_predict_result.txt]
[initscore_filename: ]
[valid_data_initscores: ]
[pre_partition: 0]
[enable_bundle: 1]
[max_conflict_rate: 0]
[is_enable_sparse: 1]
[sparse_threshold: 0.8]
[use_missing: 1]
[zero_as_missing: 0]
[two_round: 0]
[save_binary: 0]
[enable_load_from_binary_file: 1]
[header: 0]
[label_column: ]
[weight_column: ]
[group_column: ]
[ignore_column: ]
[categorical_feature: ]
[predict_raw_score: 0]
[predict_leaf_index: 0]
[predict_contrib: 0]
[num_iteration_predict: -1]
[pred_early_stop: 0]
[pred_early_stop_freq: 10]
[pred_early_stop_margin: 10]
[convert_model_language: ]
[convert_model: gbdt_prediction.cpp]
[num_class: 1]
[is_unbalance: 0]
[scale_pos_weight: 1]
[sigmoid: 1]
[boost_from_average: 1]
[reg_sqrt: 0]
[alpha: 0.9]
[fair_c: 1]
[poisson_max_delta_step: 0.7]
[tweedie_variance_power: 1.5]
[max_position: 20]
[label_gain: ]
[metric_freq: 1]
[is_provide_training_metric: 0]
[eval_at: ]
[num_machines: 1]
[local_listen_port: 12400]
[time_out: 120]
[machine_list_filename: ]
[machines: ]
[gpu_platform_id: -1]
[gpu_device_id: -1]
[gpu_use_dp: 0]

end of parameters

pandas_categorical:null
